{"kind":"linear-policy-v1","version":"0.1.0","createdAt":"2025-10-15T22:02:24.769Z","featureDim":43,"classes":["undefined:point->point","undefined:BAR->point","undefined:point->OFF"],"weights":[[0.18201620528943602,-0.12476034355613044,0.042463643458388975,0.1783538974199074,-0.037857665869230776,-0.05014915617251109,-0.00408283787057063,0.14146464585264917,0.04001612418844599,0.013465204737519408,0.03358887987171385,0.5145524558989601,-0.0743417395855141,-0.2693022716507185,-0.261419579302881,-0.1980100445672168,0.28555578323541214,0.11924752876282374,-0.036250550216227334,-0.14780909053302002,0.3063637500239943,-0.11076466261506708,0.23089367666017027,0.3694571460572638,-3.1211672189029795,-0.7177189900363011,-2.4305306300800633,-2.768454798508187,0,0,-0.06924626389233654,0.4930488603581975,0.41589606833794546,0.1292967949613682,-0.04771572076236169,0.597638364630589,0.148943697467244,0.2434429524115611,0.40409510192776327,0.394641080545091,-0.11732230142992035,0.44511757271166297,0.0240358142953484],[-0.09160568908336153,0.06899929873810286,-0.10280780482729797,-0.22517887956639315,-0.036714466624262664,0.31171849343462127,-0.013192260218098889,-0.07840309082526911,-0.13748249532480905,-0.048496313692023015,-0.04601614688469838,-0.5332865874484606,0.21217339516705397,0.2586074261494357,0.3171181635961003,0.2526986955751212,-0.2436287879292397,-0.1950530316999994,0.013154266819160567,0.07347247905529793,-0.40791208250508965,0.14305900875893535,-0.3705724424614186,-0.49234818256989293,3.7720337047605765,0.7850548562649644,-1.161420227898028,-0.6288266506864467,0,0,0.2732958250629764,-0.31629883757439065,-0.23520766774082635,0.3048034702023985,0.08742746936803036,-0.34724494406073136,0.14485710808155833,-0.2146311766376762,-0.29612589392743377,-0.18554386791522004,0.3464163349685796,-0.028197189312353176,-0.061975249183154314],[-0.09041051620607256,0.05576104481802869,0.060344161368909306,0.04682498214648685,0.07457213249349319,-0.2615693372621099,0.017275098088669567,-0.06306155502738119,0.09746637113636285,0.035031108954503704,0.0124272670129845,0.01873413154949744,-0.13783165558153876,0.010694845501283006,-0.05569858429321857,-0.054688651007904654,-0.04192699530617485,0.0758055029371749,0.02309628339706376,0.074336611477722,0.10154833248109571,-0.03229434614386846,0.13967876580125044,0.12289103651263056,-0.6508664858576005,-0.06733586622866612,3.591950857978099,3.397281449194632,0,0,-0.2040495611706405,-0.17675002278380744,-0.18068840059711905,-0.43410026516376726,-0.03971174860566687,-0.2503934205698564,-0.293800805548802,-0.028811775773888645,-0.10796920800032882,-0.2090972126298704,-0.22909403353865943,-0.4169203833993086,0.03793943488780566]],"bias":[1.6076533915305542,-0.2770537185841025,-1.3305996729464507]}