{"kind":"linear-policy-v1","version":"0.1.0","createdAt":"2025-10-15T22:07:37.392Z","featureDim":43,"classes":["undefined:point->point","undefined:point->OFF","undefined:BAR->point"],"weights":[[-0.009679104399633463,0.05636647939441304,-0.05842445184356372,0.03540262447849034,0.07018142305650997,-0.11908636641992396,0.12608657063052822,0.18254293868281232,-0.014095637390195244,-0.11127854961467559,-0.25449695775486075,0.4509755064717452,0.09896872967066099,-0.18760178082558754,-0.35049393782090105,-0.08486472552083314,0.27474763962976295,0.06600565885933815,0.3616415462035653,0.020367989404538867,0.13611461584989695,0.03474160695834578,-0.018644977830408072,0.17274644497264083,-5.905792724121375,-2.7308815237846393,-2.502759452412416,-2.939980423051911,0,0,0.020803910907686147,0.14743109213975797,-0.11829211268052905,-0.0010437618966383797,-0.20268440071509175,-0.07229247394298487,0.23107669313576,-0.16565866486595077,0.18056487029603774,-0.08879162305603355,-0.19722490256401282,-0.1860441191335999,0.06562936197544574],[-0.1735326322728569,0.08415414455234214,0.09029179064686872,0.01877221975310034,0.04441448484559286,-0.22755388588043315,0.07391727962831914,-0.047759702587215694,0.07097229830574751,0.06494252416558959,0.03922558754190577,0.0014276864593829328,-0.06390648208070697,-0.012066894007789012,-0.05207705228175975,-0.01602029310781765,0.08112725725459516,0.1207411690821355,0.25810578498043557,0.22723896074246236,0.26699398967415094,0.22203034426884516,0.13954970188093604,0.1791888717116499,-2.0034263491158115,-0.326901866782499,3.963728773720344,3.7392382026355055,0,0,-0.021437670965960186,-0.05716270479622627,-0.01199919295344189,0.23984437601965153,0.08127539611405712,0.22774408820350214,-0.24469760869022694,0.1382969347284203,0.018754577412055263,-0.06931897590702286,0.281481875113895,0.3337474889644643,0.087781748452949],[0.1832117366724909,-0.1405206239467562,-0.031867338803304585,-0.05417484423159037,-0.11459590790210156,0.346640252300354,-0.2000038502588463,-0.1347832360955973,-0.05687666091555156,0.04633602544908634,0.21527137021295503,-0.45240319293113096,-0.03506224758995501,0.19966867483337922,0.40257099010265746,0.1008850186286521,-0.3558748968843596,-0.1867468279414744,-0.6197473311840032,-0.24760695014699968,-0.4031086055240444,-0.2567719512271914,-0.12090472405052803,-0.3519353166842919,7.909219073237125,3.0577833905671326,-1.4609693213079304,-0.7992577795835935,0,0,0.0006337600582731965,-0.09026838734353188,0.13029130563396912,-0.23880061412301593,0.1214090046010336,-0.1554516142605173,0.013620915554466867,0.02736173013752998,-0.1993194477080914,0.15811059896305515,-0.08425697254988276,-0.14770336983086488,-0.1534111104283961]],"bias":[2.5020004020496,-0.9241435398186139,-1.5778568622313722]}