{"kind":"linear-policy-v1","version":"0.1.0","createdAt":"2025-10-15T22:22:18.411Z","featureDim":43,"classes":["undefined:point->point","undefined:BAR->point","undefined:point->OFF"],"weights":[[0.006890867207248524,0.07166352217532745,-0.26922629762872513,-0.023441628618593748,0.12368587011324338,-0.03886943057525398,0.013315170449108692,0.033572176413707515,0.039510072987162796,-0.014189916792964217,-0.26380474117296765,0.37062182421099626,0.09334509509871328,-0.2768701769090841,-0.4188644927168084,-0.040607635579611626,0.3623901011211795,0.08511755126161936,0.321536473403361,0.2990455079921181,0.2506761242078406,-0.019097194299984833,0.0060924652607674545,0.14118469535468628,-5.945307621296851,-2.4335784921091874,-2.4846521634912384,-2.878546503704479,0,0,0.16411725828450577,0.00991463316571376,-0.0075811312706363255,0.020305327285985834,0.10804743257757896,0.33303851882144797,0.007843414923320469,0.1979480212529283,0.07761022719699699,-0.05111930141016534,0.3417531521480986,0.05380652475341772,0.16548277106746265],[0.1173206060960281,-0.05072810056747279,0.16293057798084284,-0.03043908931671876,-0.2539554636408589,0.3045511827993146,-0.13583543016111885,0.016130268655072773,-0.16310095955821138,-0.06804635236547596,0.14498886913393783,-0.4279270222609652,-0.01858453963610448,0.313626631425749,0.42560268671234786,0.049439348898264325,-0.45869561372364615,-0.2350362489893783,-0.4464218835042511,-0.5374952049655994,-0.40874881036192473,-0.1476065765807655,-0.21891266394174563,-0.36273602820079504,8.104185474170245,2.75487482063539,-1.4081163568610435,-0.7415196446802947,0,0,0.12383168896611133,0.014729642288459917,0.08050879395813187,-0.1922621803720784,-0.049664639007569046,-0.20531279338003153,-0.04223570073855292,-0.16682593241846766,-0.14888229674367512,-0.07169883539949597,0.21161664096227722,-0.01014336320905779,-0.1769864871357743],[-0.12421147330327739,-0.020935421607854738,0.1062957196478813,0.053880717935313134,0.13026959352761722,-0.2656817522240598,0.12252025971201104,-0.049702445068780805,0.12359088657104898,0.08223626915844039,0.1188158720390305,0.0573051980499692,-0.07476055546260862,-0.036756454516665815,-0.006738193995541532,-0.008831713318653957,0.09630551260246599,0.14991869772775956,0.1248854101008906,0.23844969697348006,0.1580726861540832,0.16670377088074914,0.2128201986809784,0.22155133284610787,-2.158877852873383,-0.3212963285261642,3.8927685203522877,3.62006614838478,0,0,-0.28794894725061676,-0.024644275454176252,-0.07292766268749441,0.1719568530860928,-0.058382793570008404,-0.1277257254414186,0.03439228581523414,-0.031122088834460417,0.07127206954667722,0.12281813680966185,-0.5533697931103712,-0.043663161544361666,0.011503716068310557]],"bias":[2.921740157195464,-1.3387506068575727,-1.582989550337887]}