{"kind":"linear-policy-v1","version":"0.1.0","createdAt":"2025-10-15T22:04:01.989Z","featureDim":43,"classes":["undefined:point->point","undefined:point->OFF","undefined:BAR->point"],"weights":[[-0.1544691438451037,-0.1138091512865659,0.014415445190752772,-0.03602450831203026,-0.00015698689435235855,-0.1100911437960847,-0.015372149862147837,-0.08208563279499693,0.09543280717534025,-0.0029721043920646834,-0.3299942673943209,0.532201995806345,0.0015733171831836896,-0.2963027157380072,-0.323101543708382,-0.04489310891006866,0.08625995874832962,0.33579643653108887,0.3188643176887025,0.15340797656878177,-0.0707350160015093,-0.03829057024885325,0.16114077421678602,0.1826082180198437,-5.6413749676881,-1.8689865555584486,-2.4261807806243434,-2.9400298478467946,0,0,-0.17156567786116433,0.23982881847523635,0.0177206399082103,0.1518147773955907,-0.08056027764534467,0.5233804426747073,0.03914679375154458,0.15699579319924364,0.04902872678948646,0.37583756541687113,0.004332410676252578,0.055277433113838585,0.22579490165804422],[-0.09157006708196996,-0.06764391991238722,0.1237159476617797,0.1017300084455669,0.14222043698769612,-0.1593962221659444,0.15114029489051092,-0.12442088162867304,0.17015752265376516,0.09426178592814279,0.16147343244865198,-0.02295456167335557,0.0224262125893357,0.020515159584553525,-0.09339976890839416,-0.04848251517258502,0.15616149166436868,0.11506595543129025,0.272001898029355,0.1726679377878527,0.270619930051843,0.26941437831744225,0.1297508429372216,0.10240896712339254,-2.067098617481321,-0.21606691044153437,3.866453616889362,3.67539590582579,0,0,-0.013934599598717932,-0.11546750371180436,0.08506889665867925,-0.13823860336444815,0.14109680957910625,-0.20055766220809937,-0.10449092653353104,-0.32896137333047326,0.1809456118270656,-0.18889126476679957,-0.0058538375839860485,0.20521912774244064,-0.06413924540562246],[0.24603921092707517,0.18145307119895204,-0.13813139285253348,-0.06570550013353758,-0.14206345009334398,0.2694873659620292,-0.13576814502836237,0.2065065144236684,-0.265590329829104,-0.09128968153607689,0.16852083494566952,-0.5092474341329907,-0.023999529772519942,0.2757875561534551,0.4165013126167761,0.09337562408265508,-0.24242145041269908,-0.45086239196237876,-0.5908662157180617,-0.32607591435663363,-0.19988491405033076,-0.23112380806858812,-0.2908916171540056,-0.2850171851432368,7.708473585169416,2.0850534659999918,-1.4402728362650088,-0.7353660579789909,0,0,0.1855002774598817,-0.12436131476343157,-0.10278953656688887,-0.013576174031145383,-0.06053653193376029,-0.32282278046660673,0.06534413278198344,0.17196558013123026,-0.22997433861655242,-0.18694630065007348,0.0015214269077371328,-0.2604965608562785,-0.16165565625241995]],"bias":[2.4766888719827027,-1.1588874143437669,-1.3178014576389947]}