{"kind":"linear-policy-v1","version":"0.1.0","createdAt":"2025-10-15T22:16:53.437Z","featureDim":43,"classes":["undefined:point->point","undefined:BAR->point","undefined:point->OFF"],"weights":[[-0.09648244785158011,-0.09880974810959095,-0.024108179468842146,-0.1275193874675591,0.12603895300741494,-0.11487451183116104,0.15390615207351696,0.10126970144826906,-0.09802316188299444,-0.018060159487852695,-0.24053857322867206,0.32153147593283565,0.28202942594973807,-0.29596996440880513,-0.2320827041797808,-0.21879496868151638,0.22699475957083448,0.03723214252261143,0.3518440329648971,0.09209231005100933,0.11221521529266583,0.19324218517480576,0.07299220536127801,0.1335941989233773,-5.907528161387131,-2.5195252693246744,-2.112935145187735,-2.6498945173191366,0,0,0.12543429657449473,0.238441026396831,-0.08543555370834845,0.3508628038166124,0.12436439748998718,-0.07187315541201955,0.18894022408147335,0.05034084484486297,-0.05000562294301,0.31770203564653465,0.20266744747924825,-0.02785111395155156,0.16221713253041958],[0.2907991510677278,0.17269970062785797,-0.0785127877782498,0.0798822049174529,-0.10219002376394125,0.3404962633814514,-0.24765489913327007,-0.05311790885456344,0.015341256423868374,-0.012243120080860252,0.12867481485905652,-0.2966596575169612,-0.2946834369874997,0.24612078577313753,0.32507675792215035,0.19209353449390124,-0.39195869448827714,-0.1477974606013743,-0.6149829212564991,-0.14172244635521394,-0.2619409775702338,-0.37159300315231863,-0.27936530286075867,-0.2997079273122066,8.077272119122734,2.884341341142687,-1.3685345182835535,-0.4060520364690596,0,0,-0.12681728335232845,-0.19966572264749122,-0.18513137917708533,-0.11492815295587173,0.09779229235054047,0.09074570984227905,0.0005193544121635023,-0.011039904020589604,0.004289430705637047,0.06644123260230642,-0.35346841134928597,-0.1447462382901889,-0.21335056394957252],[-0.19431670321614597,-0.07388995251826747,0.10262096724709306,0.0476371825501052,-0.023848929243473944,-0.22562175155029152,0.09374874705975274,-0.04815179259370553,0.08268190545912513,0.030303279568712614,0.1118637583696159,-0.02487181841587544,0.012654011037762692,0.04984917863566725,-0.0929940537423697,0.026701434187611357,0.16496393491744096,0.11056531807876116,0.26313888829160353,0.04963013630420384,0.1497257622775702,0.1783508179775142,0.20637309749948055,0.1661137283888274,-2.1697439577356534,-0.36481607181801273,3.481469663471292,3.055946553788174,0,0,0.0013829867778327439,-0.038775303749338075,0.2705669328854339,-0.23593465086074072,-0.22215668984052767,-0.01887255443025977,-0.18945957849363793,-0.03930094082427357,0.04571619223737221,-0.3841432682488431,0.15080096387004013,0.17259735224173905,0.051133431419152484]],"bias":[3.417696238794207,-1.8286642310219012,-1.5890320077755669]}