{"kind":"linear-policy-v1","version":"0.1.0","createdAt":"2025-10-15T22:24:18.565Z","featureDim":43,"classes":["undefined:point->point","undefined:BAR->point","undefined:point->OFF"],"weights":[[-0.05075057808573269,0.03380466149042178,0.04634987993878944,0.07211973824812985,0.15570459382967208,-0.23884605305344955,-0.05362918577088453,0.18428779839996365,0.04290390033264415,-0.15272343115061723,-0.16122923197092695,0.37742790740831045,0.09984682515819457,-0.36837619502389435,-0.19321122618841058,-0.10604288792067575,0.41697883813632425,0.11293279365490899,0.5216402882188937,0.06836811346051588,0.09867821723654767,0.20558921726504928,0.19631881760397996,0.07958984464647896,-6.039550415116472,-2.2547061547823763,-2.1243977663445923,-2.532001886587277,0,0,-0.0539439556276228,-0.004819201014243407,0.15468662958020946,-0.054724349219099376,0.4583105414074156,0.12995072873011662,-0.017812799817124494,-0.020073102992248956,0.4038427604371751,0.271194570930657,-0.027411140244793665,0.019720105543109018,0.04672145589209312],[0.1892911590507395,-0.11565712967011937,-0.15328375810692554,-0.15038864705752433,-0.2072200795253032,0.39821028669191766,-0.09149293066568383,-0.08827550156151402,-0.14253350613855123,0.058239405278914205,0.04699345729345474,-0.43236974667700195,-0.023354579967947497,0.3526845745954574,0.216686229199413,0.17879609106689517,-0.4615291335155398,-0.25289977979543166,-0.7411254956914454,-0.19638664635688835,-0.347889080667498,-0.3491562768146676,-0.2126291099882825,-0.1547007836163181,8.097990728452016,2.489914441732551,-1.4199780564135023,-0.6980221089595318,0,0,0.17749326905671914,-0.09227412374714813,0.05809824603334061,0.000030449091304906218,-0.20394585514630828,-0.28657116971432456,0.1849793786063087,-0.20588672934285204,-0.22807455666658777,-0.139623657511425,-0.08847457885462488,0.12991095934276234,-0.14755086522260438],[-0.1385405809650055,0.08185246817969591,0.10693387816813527,0.07826890880939497,0.05151548569563157,-0.1593642336384695,0.14512211643656744,-0.09601229683844964,0.09962960580590713,0.09448402587170247,0.11423577467747274,0.054941839268692325,-0.07649224519024646,0.01569162042843569,-0.023475003011003862,-0.07275320314621997,0.04455029537921208,0.13996698614052325,0.21948520747255193,0.12801853289637288,0.24921086343095186,0.1435670595496175,0.016310292384303576,0.07511093896983555,-2.058440313335597,-0.23520828695015886,3.5443758227580986,3.2300239955468038,0,0,-0.12354931342909611,0.09709332476139351,-0.21278487561354972,0.05469390012779481,-0.25436468626110814,0.15662044098420858,-0.1671665787891852,0.22595983233510103,-0.17576820377058622,-0.131570913419233,0.11588571909941857,-0.14963106488587308,0.10082940933051299]],"bias":[2.9383998106369926,-1.5042449362653108,-1.4341548743717218]}